svm_type c_svc
kernel_type rbf
gamma 8
nr_class 2
total_sv 237
rho 1.6049624898820813
label 1 -1
nr_sv 47 190
SV
512 1:0 2:1 3:1 
512 1:0 2:0.197553 3:0.253394 
512 1:0 2:0.084101 3:0.181125 
461.31357720324621 1:0.333333 2:0.064449 3:0.188889 
512 1:1 2:1 3:1 
512 1:0 2:1 3:1 
512 1:0.017837 2:0.027651 3:0.02551 
512 1:0 2:0.341835 3:0.232877 
512 1:0 2:1 3:1 
512 1:1 2:1 3:1 
512 1:0.018161 2:0.029827 3:0.026175 
512 1:0.026756 2:0.022564 3:0.02551 
89.280993577572232 1:0.332778 2:0.333333 3:0.503509 
82.46472906502953 1:0.498418 2:0.079237 3:0.435897 
512 1:0.001666 2:0.333333 3:0.208772 
1.7174200462539042 1:1 2:0.879796 3:0.3 
512 1:0 2:1 3:1 
512 1:0 2:0.677075 3:0.433333 
36.474609428783729 1:0.943344 2:0.228675 3:0.076389 
512 1:0 2:0.094932 3:0.05612 
512 1:0.333333 2:0.129681 3:0.188889 
6.6709707168791006 1:0.498418 2:0.857352 3:0.435897 
512 1:0.027242 2:0.025927 3:0.026175 
512 1:0.333333 2:0.128795 3:0.188889 
512 1:0 2:0.500587 3:0.371429 
512 1:1 2:1 3:1 
512 1:0 2:0.344636 3:0.355556 
512 1:0.017837 2:0.166118 3:0.02551 
16.508530217078984 1:0.002519 2:0.924017 3:0.742574 
22.332117139636967 1:0.907801 2:0.500047 3:0.5 
512 1:0 2:0.288936 3:0.065864 
512 1:0 2:0.332882 3:0.326667 
88.96537803242208 1:0.665556 2:0.333333 3:0.287719 
512 1:0 2:0.179913 3:0.065041 
512 1:0 2:0.056732 3:0.444444 
512 1:0 2:0.334581 3:0.346667 
512 1:0 2:1 3:1 
512 1:0 2:0.004339 3:0.015609 
512 1:0 2:0.92779 3:0.540275 
512 1:0 2:1 3:1 
512 1:0 2:1 3:1 
512 1:0 2:1 3:1 
512 1:0 2:0.140391 3:0.132321 
48.300495275335173 1:1 2:0.332537 3:0.326667 
512 1:0 2:1 3:1 
512 1:0.000235 2:0.046174 3:0.351687 
512 1:0.032035 2:0 3:0.049075 
-122.71987463971742 1:0.019399 2:0.012066 3:0.01377 
-128 1:0 2:0.771113 3:0.521739 
-6.7928297620507134 1:1 2:0.500805 3:0.642857 
-128 1:0 2:0.541613 3:0.392289 
-128 1:0 2:0.333774 3:0.33316 
-128 1:0 2:0.124658 3:0.058723 
-86.903713300724192 1:0.03815 2:0.288196 3:0.134167 
-128 1:0 2:0.190248 3:0.097813 
-128 1:0.260163 2:0.090685 3:0.144309 
-128 1:0 2:0.165584 3:0.087719 
-128 1:0 2:0.12472 3:0.05894 
-57.866496682461133 1:0 2:0.355121 3:0.342631 
-55.295554026000218 1:0 2:0.640916 3:0.332626 
-128 1:0 2:0.124658 3:0.058723 
-128 1:0 2:0.074082 3:0.250689 
-43.748366420027509 1:0 2:0.407803 3:0.333333 
-128 1:0.013526 2:0.073648 3:0.015609 
-45.306393082672074 1:0.437978 2:0.200032 3:0.325622 
-128 1:0.269088 2:0.169941 3:0.277597 
-128 1:0.012846 2:0.199998 3:0.104235 
-128 1:0 2:0.35512 3:0.342631 
-40.82356559170001 1:0.825768 2:0.320919 3:0.125 
-68.095935993032001 1:0.907801 2:0.333549 3:0.35914 
-3.2148212337795075 1:0.258065 2:0.166668 3:0.179487 
-128 1:0 2:0.009865 3:0.104641 
-128 1:0 2:0.333201 3:0.190406 
-128 1:0 2:0.108876 3:0.333333 
-128 1:0 2:0.126121 3:0.333333 
-105.60953683714713 1:0.029726 2:0.033313 3:0.064149 
-128 1:0.362606 2:0.111324 3:0.175862 
-52.917928919319806 1:0 2:0.124717 3:0.059054 
-122.89639111744044 1:0 2:0.96954 3:0.540275 
-128 1:0.362606 2:0.111328 3:0.175862 
-47.955295468163115 1:0.421053 2:0.333324 3:0.388889 
-128 1:0 2:0.151624 3:0.075855 
-128 1:0 2:0.969202 3:0.540275 
-128 1:0 2:0.071802 3:0.333333 
-128 1:0.018035 2:0.004345 3:0.015609 
-128 1:0 2:0.559491 3:0.401408 
-117.55914526587243 1:0 2:0.354831 3:0.342631 
-9.607149389037092 1:0 2:0.333887 3:0.333333 
-128 1:0.029726 2:0.033313 3:0.064149 
-7.3320588814127063 1:0 2:0.33339 3:0.33316 
-80.444736151959205 1:0.03607 2:0.004346 3:0.015609 
-128 1:0.362606 2:0.111702 3:0.175862 
-0.0032921076240221264 1:0 2:1 3:1 
-128 1:0 2:0.721744 3:0.384615 
-83.144597425504173 1:0.168963 2:0.101222 3:0.125 
-128 1:0.002695 2:0.073475 3:0.015609 
-128 1:0 2:0.071361 3:0.333333 
-18.501561656602949 1:0.951673 2:0.200007 3:0.202106 
-128 1:0.362606 2:0.111515 3:0.175862 
-110.57886299094751 1:0 2:0.333123 3:0.190406 
-128 1:0 2:0.141771 3:0.066698 
-128 1:0 2:0.333125 3:0.190406 
-15.82925296397238 1:0 2:0.33339 3:0.33316 
-128 1:0 2:0.17154 3:0.070461 
-26.310567854615055 1:0 2:0.106393 3:0.528 
-128 1:0 2:0 3:0.026175 
-108.47583544826122 1:0.03607 2:0.004346 3:0.015609 
-128 1:0 2:0.333347 3:0.33316 
-128 1:0 2:0.013417 3:0.156841 
-128 1:0 2:0.546953 3:0.401408 
-104.41721699916172 1:0 2:0.013404 3:0.156841 
-0.0057001492263621606 1:0 2:1 3:1 
-128 1:0.018035 2:0.004345 3:0.015609 
-128 1:0 2:0.33339 3:0.33316 
-24.110059277288382 1:0.333333 2:0.499431 3:0.5 
-128 1:0.018035 2:0.004398 3:0.015609 
-128 1:0.03607 2:0.073772 3:0.015609 
-128 1:0 2:0.030402 3:0.459725 
-128 1:0.018035 2:0.004398 3:0.015609 
-7.2192553183220571 1:0 2:0.33339 3:0.33316 
-128 1:0.019399 2:0.011774 3:0.013937 
-128 1:0 2:0.969459 3:0.540275 
-0.007473067526548834 1:0 2:1 3:1 
-128 1:0 2:0.35512 3:0.342631 
-9.4981355808157417 1:0 2:0.33339 3:0.33316 
-128 1:0 2:0.334959 3:0.333333 
-106.72944197571751 1:0 2:0.126435 3:0.333333 
-128 1:0.03607 2:0.004344 3:0.015609 
-1.5926139267535586 1:0 2:0.120204 3:0.7 
-128 1:0 2:0.069383 3:0.300401 
-29.381720275102364 1:0 2:0.333435 3:0.31068 
-37.005908507804726 1:0 2:0.333771 3:0.33316 
-128 1:0 2:0 3:0.083333 
-128 1:0 2:0.030798 3:0.459725 
-128 1:0.018035 2:0.004345 3:0.015609 
-128 1:0.191386 2:0.027579 3:0.144828 
-128 1:0.018945 2:0.012134 3:0.013937 
-128 1:0 2:0.40781 3:0.333333 
-26.371871894093509 1:0.03607 2:0.073659 3:0.015609 
-128 1:0 2:0.333347 3:0.33316 
-128 1:0.012082 2:0.199998 3:0.104235 
-128 1:0 2:0.390875 3:0.143251 
-105.44076400050314 1:0 2:0.056852 3:0.014951 
-14.751895922737544 1:0 2:0 3:0.02551 
-128 1:0 2:0.333347 3:0.33316 
-38.872897289276167 1:0 2:0.006452 3:0.039687 
-105.36638998680552 1:0 2:0.73251 3:0.5 
-56.785414068557884 1:0.533333 2:0.140301 3:0.473684 
-128 1:0.362606 2:0.111289 3:0.175862 
-2.6392715781197871 1:0.996644 2:1 3:0.416667 
-128 1:0.362606 2:0.111302 3:0.175862 
-128 1:0.018035 2:0.004345 3:0.015609 
-4.6034056399231247 1:0.362606 2:0.111705 3:0.175862 
-128 1:0 2:0.165665 3:0.035088 
-128 1:0 2:0.333347 3:0.33316 
-128 1:0 2:0.202097 3:0.093333 
-0.017287960244851304 1:0 2:1 3:1 
-5.1679393050095177 1:0 2:0.5344 3:0.401408 
-128 1:0 2:0.329169 3:0.18024 
-128 1:0 2:0.198454 3:0.093333 
-128 1:0 2:0.304933 3:0.12069 
-128 1:0 2:0.249403 3:0.147932 
-112.5215977039491 1:0 2:0.124708 3:0.260532 
-128 1:0 2:0.057629 3:0.009843 
-0.32212272471983383 1:0 2:1 3:1 
-128 1:0 2:0.164308 3:0.073648 
-128 1:0.362606 2:0.111651 3:0.175862 
-128 1:0 2:0.33335 3:0.333333 
-0.38750591544402135 1:0 2:0.33339 3:0.33316 
-128 1:0 2:0.773071 3:0.521739 
-128 1:0 2:0.355128 3:0.342631 
-128 1:0 2:0.106918 3:0.333333 
-128 1:0.03607 2:0.073709 3:0.015609 
-128 1:0 2:0.030541 3:0.459725 
-4.4351770059154081 1:0 2:0.33339 3:0.33316 
-128 1:0.320617 2:0.084106 3:0.322 
-128 1:0 2:0.33339 3:0.33316 
-128 1:0 2:0.12472 3:0.05894 
-5.263838337154704 1:0 2:1 3:1 
-128 1:0 2:1 3:1 
-128 1:0.019399 2:0.012152 3:0.013937 
-128 1:0 2:1 3:1 
-128 1:0 2:1 3:1 
-128 1:0 2:1 3:1 
-128 1:0 2:1 3:1 
-128 1:0 2:1 3:1 
-128 1:0 2:1 3:1 
-128 1:0 2:1 3:1 
-128 1:0 2:1 3:1 
-128 1:0 2:1 3:1 
-128 1:0 2:0.280802 3:0.12069 
-128 1:0 2:1 3:1 
-128 1:0 2:1 3:1 
-128 1:0 2:1 3:1 
-128 1:0 2:1 3:1 
-128 1:0 2:1 3:1 
-128 1:0 2:1 3:1 
-128 1:0 2:1 3:1 
-127.90019087113322 1:1 2:1 3:1 
-128 1:0 2:1 3:1 
-128 1:1 2:1 3:1 
-1.816649615646341 1:0.258065 2:0.166668 3:0.179487 
-128 1:0 2:1 3:1 
-128 1:0 2:1 3:1 
-128 1:0 2:0.248601 3:0.143777 
-128 1:1 2:1 3:1 
-128 1:1 2:1 3:1 
-17.312022503073386 1:0.666667 2:0.500569 3:0.5 
-128 1:0 2:1 3:1 
-128 1:1 2:1 3:1 
-128 1:0 2:1 3:1 
-128 1:0 2:1 3:1 
-128 1:0 2:1 3:1 
-128 1:0.016461 2:0.016423 3:0.047569 
-128 1:0 2:0.124644 3:0.045596 
-128 1:1 2:1 3:1 
-128 1:0 2:0.498618 3:0.353846 
-128 1:0.362606 2:0.111246 3:0.175862 
-128 1:0 2:1 3:1 
-128 1:0 2:1 3:1 
-128 1:0 2:1 3:1 
-128 1:0 2:1 3:1 
-128 1:1 2:1 3:1 
-128 1:0 2:1 3:1 
-128 1:0 2:1 3:1 
-128 1:0 2:1 3:1 
-128 1:0 2:1 3:1 
-128 1:1 2:1 3:1 
-128 1:1 2:1 3:1 
-128 1:0 2:1 3:1 
-128 1:0 2:1 3:1 
-128 1:0 2:1 3:1 
-128 1:1 2:1 3:1 
-128 1:0 2:1 3:1 
-128 1:1 2:1 3:1 
-127.3033477876173 1:1 2:1 3:1 
-2.8479423045508239 1:0 2:0.071176 3:0.333333 
