svm_type c_svc
kernel_type rbf
gamma 8
nr_class 2
total_sv 215
rho 1.1636697865140453
label 1 -1
nr_sv 47 168
SV
384 1:0 2:1 3:1 
384 1:0 2:0.197553 3:0.253394 
384 1:0 2:0.084101 3:0.181125 
384 1:0.333333 2:0.064449 3:0.188889 
384 1:1 2:1 3:1 
384 1:0 2:1 3:1 
384 1:0.017837 2:0.027651 3:0.02551 
384 1:0 2:0.341835 3:0.232877 
384 1:0 2:1 3:1 
384 1:1 2:1 3:1 
384 1:0.018161 2:0.029827 3:0.026175 
384 1:0.026756 2:0.022564 3:0.02551 
77.722403153209811 1:0.332778 2:0.333333 3:0.503509 
93.564524819599114 1:0.498418 2:0.079237 3:0.435897 
384 1:0.001666 2:0.333333 3:0.208772 
1.8275087515805326 1:1 2:0.879796 3:0.3 
384 1:0 2:1 3:1 
384 1:0 2:0.677075 3:0.433333 
36.762617693575528 1:0.943344 2:0.228675 3:0.076389 
384 1:0 2:0.094932 3:0.05612 
384 1:0.333333 2:0.129681 3:0.188889 
5.9982807883687865 1:0.498418 2:0.857352 3:0.435897 
384 1:0.027242 2:0.025927 3:0.026175 
384 1:0.333333 2:0.128795 3:0.188889 
384 1:0 2:0.500587 3:0.371429 
384 1:1 2:1 3:1 
384 1:0 2:0.344636 3:0.355556 
384 1:0.017837 2:0.166118 3:0.02551 
14.328589693561247 1:0.002519 2:0.924017 3:0.742574 
19.29781901941708 1:0.907801 2:0.500047 3:0.5 
384 1:0 2:0.288936 3:0.065864 
384 1:0 2:0.332882 3:0.326667 
83.823284979247859 1:0.665556 2:0.333333 3:0.287719 
384 1:0 2:0.179913 3:0.065041 
384 1:0 2:0.056732 3:0.444444 
384 1:0 2:0.334581 3:0.346667 
384 1:0 2:1 3:1 
384 1:0 2:0.004339 3:0.015609 
384 1:0 2:0.92779 3:0.540275 
384 1:0 2:1 3:1 
384 1:0 2:1 3:1 
384 1:0 2:1 3:1 
384 1:0 2:0.140391 3:0.132321 
46.782146088564609 1:1 2:0.332537 3:0.326667 
384 1:0 2:1 3:1 
384 1:0.000235 2:0.046174 3:0.351687 
384 1:0.032035 2:0 3:0.049075 
-127.09833693207727 1:0 2:0.771113 3:0.521739 
-6.4889804058098335 1:1 2:0.500805 3:0.642857 
-128 1:0 2:0.541613 3:0.392289 
-8.0149974210906141 1:0 2:0.10125 3:0.460526 
-1.7721276326072875 1:0 2:0.333774 3:0.33316 
-67.103610901364391 1:0.03815 2:0.288196 3:0.134167 
-128 1:0 2:0.190248 3:0.097813 
-128 1:0.260163 2:0.090685 3:0.144309 
-42.118954244062827 1:0 2:0.124658 3:0.058723 
-128 1:0 2:0.074082 3:0.250689 
-2.66059585872976 1:0 2:0.407803 3:0.333333 
-128 1:0.013526 2:0.073648 3:0.015609 
-71.257997009211749 1:0.269088 2:0.169941 3:0.277597 
-45.312587014408273 1:0.012846 2:0.199998 3:0.104235 
-41.253531541210691 1:0.825768 2:0.320919 3:0.125 
-62.461314085018245 1:0.907801 2:0.333549 3:0.35914 
-20.822441549430788 1:0.258065 2:0.166668 3:0.179487 
-128 1:0 2:0.009865 3:0.104641 
-20.492564272477999 1:0 2:0.333201 3:0.190406 
-60.834923020295093 1:0.020001 2:0.027321 3:0.035144 
-128 1:0 2:0.333337 3:0.33342 
-128 1:0 2:0.108876 3:0.333333 
-75.669467526675646 1:0 2:0.126121 3:0.333333 
-28.929751636848586 1:0.029726 2:0.033313 3:0.064149 
-128 1:0.362606 2:0.111324 3:0.175862 
-22.071276964954635 1:0 2:0.96954 3:0.540275 
-128 1:0.362606 2:0.111328 3:0.175862 
-49.003368901698792 1:0.421053 2:0.333324 3:0.388889 
-128 1:0 2:0.151624 3:0.075855 
-128 1:0 2:0.969202 3:0.540275 
-118.65821962166142 1:0 2:0.071802 3:0.333333 
-128 1:0.018035 2:0.004345 3:0.015609 
-128 1:0 2:0.559491 3:0.401408 
-61.834116031381811 1:0 2:0.333887 3:0.333333 
-14.649456660867193 1:0.029726 2:0.033313 3:0.064149 
-0.0044077922011081065 1:0 2:1 3:1 
-0.008880652394276916 1:0 2:1 3:1 
-0.0067562958468962171 1:1 2:1 3:1 
-8.2568352512236238 1:0 2:0.407815 3:0.333333 
-50.556928070731288 1:0 2:0.407856 3:0.333333 
-101.32505876216506 1:0 2:0.060798 3:0.200392 
-128 1:0 2:0.721744 3:0.384615 
-12.892499041892979 1:0 2:0.33339 3:0.33316 
-2.8397154952274706 1:0 2:0.33339 3:0.33316 
-7.7980451727987719 1:0.168963 2:0.101222 3:0.125 
-18.106890100269311 1:0 2:0.199743 3:0.56 
-128 1:0.026756 2:0.02229 3:0.02551 
-0.0032106738068643213 1:0 2:1 3:1 
-128 1:0.002695 2:0.073475 3:0.015609 
-20.274258335911824 1:0.951673 2:0.200007 3:0.202106 
-123.65746222892047 1:0.362606 2:0.111515 3:0.175862 
-128 1:0 2:0.141771 3:0.066698 
-2.6994464784191905 1:0 2:0.33339 3:0.33316 
-128 1:0 2:0.17154 3:0.070461 
-1.4094910228739936 1:0 2:0.106393 3:0.528 
-103.00735337770045 1:0.020001 2:0.027321 3:0.035144 
-53.564776556954655 1:0 2:0.546953 3:0.401408 
-6.8734659243975047 1:0 2:0.499911 3:0.338912 
-128 1:0 2:0.333127 3:0.308704 
-128 1:0.018035 2:0.004345 3:0.015609 
-0.00083668573996845824 1:0 2:1 3:1 
-128 1:0.026756 2:0.022304 3:0.02551 
-21.650950396818804 1:0.333333 2:0.499431 3:0.5 
-128 1:0.018035 2:0.004398 3:0.015609 
-128 1:0.03607 2:0.073772 3:0.015609 
-52.426211657748411 1:0 2:0.030402 3:0.459725 
-128 1:0.018035 2:0.004398 3:0.015609 
-128 1:0 2:0.969459 3:0.540275 
-49.799207634505017 1:0 2:0.35512 3:0.342631 
-15.308508521176357 1:0 2:0.33339 3:0.33316 
-128 1:0 2:0.334959 3:0.333333 
-19.554317984684779 1:0.03607 2:0.004344 3:0.015609 
-0.00239801357635579 1:0 2:1 3:1 
-0.0041986094360156687 1:0 2:1 3:1 
-9.4988926085290988 1:0 2:0.333389 3:0.33316 
-128 1:0 2:0.069383 3:0.300401 
-128 1:0 2:0.333435 3:0.31068 
-81.185477483317925 1:0 2:0.333771 3:0.33316 
-44.805963487155935 1:0.441286 2:0.170566 3:0.277597 
-128 1:0 2:0 3:0.083333 
-128 1:0 2:0.030798 3:0.459725 
-128 1:0.018035 2:0.004345 3:0.015609 
-128 1:0.191386 2:0.027579 3:0.144828 
-128 1:0 2:0.40781 3:0.333333 
-128 1:0 2:0.333347 3:0.33316 
-8.844815781892164 1:0.017837 2:0.022522 3:0.02551 
-128 1:0.012082 2:0.199998 3:0.104235 
-128 1:0 2:0.390875 3:0.143251 
-13.469333403690717 1:0 2:0.056852 3:0.014951 
-128 1:0 2:0.333347 3:0.33316 
-126.30203118511602 1:0 2:0.006452 3:0.039687 
-42.96012461869185 1:0 2:0.02833 3:0.131863 
-68.97805948792147 1:0.533333 2:0.140301 3:0.473684 
-128 1:0.362606 2:0.111289 3:0.175862 
-2.937340048222477 1:0.996644 2:1 3:0.416667 
-128 1:0 2:0.333338 3:0.33342 
-128 1:0.362606 2:0.111302 3:0.175862 
-128 1:0.018035 2:0.004345 3:0.015609 
-128 1:0 2:0.165665 3:0.035088 
-128 1:0 2:0.333347 3:0.33316 
-0.0027646773302390792 1:0 2:1 3:1 
-128 1:0 2:0.202097 3:0.093333 
-128 1:0 2:0.329169 3:0.18024 
-0.15066014114055415 1:1 2:1 3:1 
-128 1:0 2:0.198454 3:0.093333 
-128 1:0 2:0.304933 3:0.12069 
-128 1:0.017837 2:0.022302 3:0.02551 
-128 1:0 2:0.249403 3:0.147932 
-31.699962178850281 1:0.030001 2:0.027321 3:0.035144 
-34.003061507827013 1:0 2:0.124708 3:0.260532 
-128 1:0 2:0.057629 3:0.009843 
-66.743257002563709 1:0 2:0.124708 3:0.260532 
-128 1:0 2:0.164308 3:0.073648 
-128 1:0 2:0.773071 3:0.521739 
-128 1:0 2:0.106918 3:0.333333 
-127.52755233973818 1:0.03607 2:0.073709 3:0.015609 
-0.0011245274221378262 1:1 2:1 3:1 
-128 1:0 2:0.333771 3:0.33316 
-128 1:0 2:0.030541 3:0.459725 
-128 1:0.320617 2:0.084106 3:0.322 
-0.006944734541386389 1:0 2:1 3:1 
-1.4433518188353411 1:0 2:0.33339 3:0.33316 
-0.00059043820620125116 1:1 2:1 3:1 
-0.0013797878428770619 1:0 2:1 3:1 
-5.6582574718497707 1:0 2:1 3:1 
-128 1:0 2:1 3:1 
-128 1:0 2:0.280802 3:0.12069 
-128 1:0 2:1 3:1 
-128 1:0 2:1 3:1 
-128 1:0 2:1 3:1 
-128 1:0 2:1 3:1 
-128 1:0 2:1 3:1 
-128 1:0 2:1 3:1 
-128 1:0 2:1 3:1 
-128 1:0 2:1 3:1 
-128 1:0 2:1 3:1 
-128 1:0 2:1 3:1 
-128 1:0 2:0.248601 3:0.143777 
-127.86143114661161 1:1 2:1 3:1 
-14.256464294489453 1:0.666667 2:0.500569 3:0.5 
-128 1:0 2:1 3:1 
-128 1:1 2:1 3:1 
-128 1:0 2:1 3:1 
-128 1:0 2:1 3:1 
-128 1:0 2:1 3:1 
-128 1:0.016461 2:0.016423 3:0.047569 
-128 1:0 2:0.124644 3:0.045596 
-128 1:1 2:1 3:1 
-128 1:0 2:0.498618 3:0.353846 
-128 1:0.362606 2:0.111246 3:0.175862 
-128 1:0 2:1 3:1 
-128 1:0 2:1 3:1 
-128 1:0 2:1 3:1 
-128 1:0 2:1 3:1 
-128 1:1 2:1 3:1 
-128 1:0 2:1 3:1 
-128 1:0 2:1 3:1 
-128 1:0 2:1 3:1 
-128 1:0 2:1 3:1 
-128 1:1 2:1 3:1 
-128 1:1 2:1 3:1 
-128 1:0 2:1 3:1 
-128 1:0 2:1 3:1 
-128 1:0 2:1 3:1 
-128 1:1 2:1 3:1 
-127.63771044285836 1:0 2:1 3:1 
-128 1:1 2:1 3:1 
-127.58989440317541 1:1 2:1 3:1 
