svm_type c_svc
kernel_type rbf
gamma 8
nr_class 2
total_sv 155
rho 0.48015135152444127
label 1 -1
nr_sv 47 108
SV
128 1:0 2:1 3:1 
128 1:0 2:0.197553 3:0.253394 
128 1:0 2:0.084101 3:0.181125 
128 1:0.333333 2:0.064449 3:0.188889 
128 1:1 2:1 3:1 
128 1:0 2:1 3:1 
128 1:0.017837 2:0.027651 3:0.02551 
128 1:0 2:0.341835 3:0.232877 
128 1:0 2:1 3:1 
128 1:1 2:1 3:1 
128 1:0.018161 2:0.029827 3:0.026175 
128 1:0.026756 2:0.022564 3:0.02551 
68.60154663064165 1:0.332778 2:0.333333 3:0.503509 
116.98353439872713 1:0.498418 2:0.079237 3:0.435897 
128 1:0.001666 2:0.333333 3:0.208772 
2.2771256394135522 1:1 2:0.879796 3:0.3 
128 1:0 2:1 3:1 
128 1:0 2:0.677075 3:0.433333 
46.087758524346086 1:0.943344 2:0.228675 3:0.076389 
128 1:0 2:0.094932 3:0.05612 
128 1:0.333333 2:0.129681 3:0.188889 
5.0912162996690764 1:0.498418 2:0.857352 3:0.435897 
128 1:0.027242 2:0.025927 3:0.026175 
128 1:0.333333 2:0.128795 3:0.188889 
128 1:0 2:0.500587 3:0.371429 
128 1:1 2:1 3:1 
128 1:0 2:0.344636 3:0.355556 
128 1:0.017837 2:0.166118 3:0.02551 
12.096329979522194 1:0.002519 2:0.924017 3:0.742574 
16.166279618546927 1:0.907801 2:0.500047 3:0.5 
128 1:0 2:0.288936 3:0.065864 
128 1:0 2:0.332882 3:0.326667 
72.089331361020683 1:0.665556 2:0.333333 3:0.287719 
128 1:0 2:0.179913 3:0.065041 
128 1:0 2:0.056732 3:0.444444 
128 1:0 2:0.334581 3:0.346667 
128 1:0 2:1 3:1 
128 1:0 2:0.004339 3:0.015609 
128 1:0 2:0.92779 3:0.540275 
128 1:0 2:1 3:1 
128 1:0 2:1 3:1 
128 1:0 2:1 3:1 
128 1:0 2:0.140391 3:0.132321 
36.145659016651315 1:1 2:0.332537 3:0.326667 
128 1:0 2:1 3:1 
128 1:0.000235 2:0.046174 3:0.351687 
128 1:0.032035 2:0 3:0.049075 
-6.6990346223909381 1:1 2:0.500805 3:0.642857 
-34.30170699454915 1:0 2:0.541613 3:0.392289 
-26.701662050455042 1:0 2:0.10125 3:0.460526 
-69.901271474304835 1:0.011876 2:0.333611 3:0.432186 
-128 1:0 2:0.090353 3:0.215686 
-4.9235869256887641 1:0.092199 2:0.499953 3:0.5 
-20.536830133496522 1:0 2:0.028346 3:0.37719 
-109.96723612915363 1:0.013526 2:0.073648 3:0.015609 
-25.236474903012063 1:0 2:0.055597 3:0.178694 
-4.871077878414722 1:0 2:0.012795 3:0.046762 
-47.109952648337362 1:0.825768 2:0.320919 3:0.125 
-46.015967341109217 1:0.907801 2:0.333549 3:0.35914 
-89.589134339553937 1:0.020001 2:0.027321 3:0.035144 
-38.315704852221955 1:0.421053 2:0.333324 3:0.388889 
-95.002919440139451 1:0 2:0.969202 3:0.540275 
-42.207262466697301 1:0.259528 2:0.063152 3:0.10566 
-128 1:0 2:0.280669 3:0.284595 
-0.0013760738481550258 1:0 2:1 3:1 
-37.758251449433821 1:0 2:0.721744 3:0.384615 
-0.00016133819898958687 1:1 2:1 3:1 
-0.48748464097356525 1:0 2:0.290042 3:0.314738 
-0.0020289112357052327 1:0 2:1 3:1 
-0.4459721778455959 1:0.25 2:0.333289 3:0.357143 
-0.81272284835336572 1:0 2:0.199743 3:0.56 
-0.0040573765553304454 1:0 2:1 3:1 
-0.00077327847311035988 1:0 2:1 3:1 
-19.220774864528067 1:0.951673 2:0.200007 3:0.202106 
-128 1:0 2:0.17154 3:0.070461 
-0.0020276129817039155 1:0 2:1 3:1 
-0.002306752011875233 1:1 2:1 3:1 
-0.0033858607113160175 1:0 2:1 3:1 
-0.00075327112900095425 1:1 2:1 3:1 
-0.0067717636271104427 1:1 2:1 3:1 
-62.879842647329973 1:0.020001 2:0.027321 3:0.035144 
-7.9663191780109077 1:0 2:0.290055 3:0.314738 
-0.0016132112762138101 1:0 2:1 3:1 
-40.023779167755244 1:0 2:0.499911 3:0.338912 
-128 1:0 2:0.333127 3:0.308704 
-0.003456912836333377 1:0 2:1 3:1 
-0.0018356187617984696 1:0 2:1 3:1 
-20.158180797373539 1:0.333333 2:0.499431 3:0.5 
-64.319444995567693 1:0.018035 2:0.004398 3:0.015609 
-0.0037241010279070227 1:0 2:1 3:1 
-128 1:0.018035 2:0.004398 3:0.015609 
-8.6927680003031504 1:0.907801 2:0.089596 3:0.070546 
-128 1:0 2:0.333435 3:0.31068 
-41.28611650435279 1:0.441286 2:0.170566 3:0.277597 
-4.4458477421392404 1:0 2:0 3:0.083333 
-82.318194732122222 1:0 2:0.030798 3:0.459725 
-22.024687455843413 1:0.191386 2:0.027579 3:0.144828 
-15.007712730253077 1:0 2:0.037051 3:0.088285 
-62.794384457925112 1:0.017837 2:0.022522 3:0.02551 
-75.43326605470304 1:0 2:0.057253 3:0.371429 
-0.076693865720130858 1:0 2:0.006452 3:0.039687 
-92.175768012323076 1:0.533333 2:0.140301 3:0.473684 
-108.87450336998909 1:0.362606 2:0.111289 3:0.175862 
-3.6329570872601518 1:0.996644 2:1 3:0.416667 
-0.004293220335193422 1:1 2:1 3:1 
-28.670149450035122 1:0.134021 2:0.142886 3:0.080358 
-128 1:0 2:0.165665 3:0.035088 
-0.002366843538667964 1:0 2:1 3:1 
-0.0054506432297727605 1:1 2:1 3:1 
-29.400998708165069 1:0 2:0.202097 3:0.093333 
-2.5147121286800536 1:0.055556 2:0.099998 3:0.033263 
-16.139367032972004 1:0.08457 2:0.249883 3:0.112309 
-128 1:0 2:0.304933 3:0.12069 
-128 1:0.017837 2:0.022302 3:0.02551 
-20.486380765288718 1:0 2:0.300545 3:0.277778 
-0.84080313411987939 1:0 2:0.075753 3:0.145431 
-3.0955664358684936 1:0 2:0.075753 3:0.145431 
-1.552367688652373 1:0 2:0.124708 3:0.260532 
-1.4283278070953294 1:0 2:0.124708 3:0.260532 
-50.461077839822956 1:0 2:0.124786 3:0.227099 
-2.1512322231252554 1:0.166667 2:0.16784 3:0.09887 
-0.011459575188110357 1:1 2:1 3:1 
-0.018953370403740302 1:0 2:1 3:1 
-83.180492950610542 1:0 2:0.33339 3:0.33316 
-0.078299873295919267 1:0 2:1 3:1 
-95.389065890936408 1:0 2:0.773071 3:0.521739 
-5.7038947293919282 1:0 2:0.075754 3:0.145431 
-101.9744256201661 1:0.320617 2:0.084106 3:0.322 
-0.12228776620058573 1:0 2:1 3:1 
-0.090995730842834965 1:0 2:1 3:1 
-0.22264103719673783 1:0 2:0.0372 3:0.142096 
-0.004376505312563503 1:1 2:1 3:1 
-48.859528926460165 1:0 2:0.099288 3:0.235294 
-0.00052714432996021194 1:1 2:1 3:1 
-128 1:0 2:0.280802 3:0.12069 
-36.899172899677978 1:0 2:0.006462 3:0.039687 
-10.912074713864977 1:0.666667 2:0.500569 3:0.5 
-128 1:0.016461 2:0.016423 3:0.047569 
-61.979601412818141 1:0 2:0.124644 3:0.045596 
-128 1:0 2:0.498618 3:0.353846 
-128 1:0.362606 2:0.111246 3:0.175862 
-4.9583960147800097 1:0 2:1 3:1 
-128 1:0 2:1 3:1 
-128 1:0 2:1 3:1 
-128 1:0 2:1 3:1 
-128 1:0 2:1 3:1 
-128 1:0 2:1 3:1 
-0.2757532196402796 1:1 2:1 3:1 
-128 1:0 2:1 3:1 
-128 1:0 2:1 3:1 
-128 1:0 2:1 3:1 
-128 1:1 2:1 3:1 
-127.95112573948896 1:0 2:1 3:1 
-128 1:1 2:1 3:1 
-127.90284736469867 1:1 2:1 3:1 
