svm_type c_svc
kernel_type rbf
gamma 8
nr_class 2
total_sv 457
rho 2.9211070887519841
label 1 -1
nr_sv 47 410
SV
1280 1:0 2:1 3:1 
1280 1:0 2:0.197553 3:0.253394 
1280 1:0 2:0.084101 3:0.181125 
23.167704168793112 1:0.333333 2:0.064449 3:0.188889 
1280 1:1 2:1 3:1 
1280 1:0 2:1 3:1 
1280 1:0.017837 2:0.027651 3:0.02551 
1280 1:0 2:0.341835 3:0.232877 
1280 1:0 2:1 3:1 
1280 1:1 2:1 3:1 
1280 1:0.018161 2:0.029827 3:0.026175 
1280 1:0.026756 2:0.022564 3:0.02551 
96.356618082782958 1:0.332778 2:0.333333 3:0.503509 
151.79254841457231 1:0.498418 2:0.079237 3:0.435897 
1280 1:0.001666 2:0.333333 3:0.208772 
2.304094594232549 1:1 2:0.879796 3:0.3 
1280 1:0 2:1 3:1 
690.13551050016144 1:0 2:0.677075 3:0.433333 
42.986972123679507 1:0.943344 2:0.228675 3:0.076389 
1280 1:0 2:0.094932 3:0.05612 
1280 1:0.333333 2:0.129681 3:0.188889 
7.7475399298989815 1:0.498418 2:0.857352 3:0.435897 
1280 1:0.027242 2:0.025927 3:0.026175 
1032.6403617229371 1:0.333333 2:0.128795 3:0.188889 
1280 1:0 2:0.500587 3:0.371429 
1280 1:1 2:1 3:1 
1280 1:0 2:0.344636 3:0.355556 
1280 1:0.017837 2:0.166118 3:0.02551 
28.641460746652019 1:0.002519 2:0.924017 3:0.742574 
25.196282596990578 1:0.907801 2:0.500047 3:0.5 
174.30568474599934 1:0 2:0.288936 3:0.065864 
1280 1:0 2:0.332882 3:0.326667 
125.33490119153551 1:0.665556 2:0.333333 3:0.287719 
1280 1:0 2:0.179913 3:0.065041 
1280 1:0 2:0.056732 3:0.444444 
1280 1:0 2:0.334581 3:0.346667 
1280 1:0 2:1 3:1 
1280 1:0 2:0.004339 3:0.015609 
615.13097002250265 1:0 2:0.92779 3:0.540275 
1280 1:0 2:1 3:1 
1280 1:0 2:1 3:1 
1280 1:0 2:1 3:1 
1280 1:0 2:0.140391 3:0.132321 
50.610303385751521 1:1 2:0.332537 3:0.326667 
1280 1:0 2:1 3:1 
1280 1:0.000235 2:0.046174 3:0.351687 
1280 1:0.032035 2:0 3:0.049075 
-128 1:0.019399 2:0.012066 3:0.01377 
-128 1:0 2:0.771113 3:0.521739 
-4.7357405011823568 1:1 2:0.500805 3:0.642857 
-128 1:0 2:0.541613 3:0.392289 
-128 1:0 2:0.407794 3:0.333333 
-128 1:0 2:0.24998 3:0.1875 
-128 1:0 2:0.10125 3:0.460526 
-128 1:0 2:0.333774 3:0.33316 
-21.948978305450055 1:0.437978 2:0.200032 3:0.325622 
-128 1:0 2:0.408361 3:0.333333 
-128 1:0 2:0.124658 3:0.058723 
-128 1:0 2:0.190248 3:0.097813 
-128 1:0.022858 2:0.012342 3:0.013937 
-128 1:0.260163 2:0.090685 3:0.144309 
-128 1:0 2:0.165584 3:0.087719 
-128 1:0 2:0.12472 3:0.05894 
-128 1:0.029726 2:0.033321 3:0.064149 
-111.55474502941246 1:0 2:0.275298 3:0.242134 
-128 1:0 2:0.161266 3:0.10566 
-128 1:0.029726 2:0.03334 3:0.064149 
-128 1:0.362606 2:0.111762 3:0.175862 
-128 1:0 2:0.640916 3:0.332626 
-128 1:0 2:0.124658 3:0.058723 
-97.712426317582981 1:0.307577 2:0.200066 3:0.145946 
-128 1:0 2:0.028346 3:0.37719 
-128 1:0 2:0.096591 3:0.045757 
-128 1:0.012346 2:0.083337 3:0.039494 
-128 1:0 2:0.407803 3:0.333333 
-128 1:0.013526 2:0.073648 3:0.015609 
-127.44251671036562 1:0.437978 2:0.200032 3:0.325622 
-128 1:0.269088 2:0.169941 3:0.277597 
-128 1:0 2:0.012795 3:0.046762 
-128 1:0.012846 2:0.199998 3:0.104235 
-55.025022092769568 1:0.825768 2:0.320919 3:0.125 
-77.549121207036364 1:0.907801 2:0.333549 3:0.35914 
-78.06516274914469 1:0 2:0.013242 3:0.046762 
-128 1:0.258065 2:0.166668 3:0.179487 
-58.447032576390626 1:0 2:0.33339 3:0.33316 
-128 1:0 2:0.068383 3:0.333333 
-128 1:0.029726 2:0.033341 3:0.064149 
-128 1:0 2:0.124717 3:0.059054 
-128 1:0 2:0.009865 3:0.104641 
-128 1:0 2:0.333201 3:0.190406 
-128 1:0.019499 2:0.012816 3:0.01377 
-128 1:0 2:0.33339 3:0.33316 
-128 1:0 2:0.33339 3:0.33316 
-128 1:0 2:0.108876 3:0.333333 
-128 1:0 2:0.126121 3:0.333333 
-128 1:0.029726 2:0.033313 3:0.064149 
-128 1:0 2:0.302154 3:0.264591 
-128 1:0.362606 2:0.111324 3:0.175862 
-128 1:0 2:0.124717 3:0.059054 
-128 1:0.022785 2:0.012557 3:0.01377 
-128 1:0 2:0.96954 3:0.540275 
-128 1:0.362606 2:0.111328 3:0.175862 
-128 1:0 2:0.096589 3:0.045757 
-80.590398724100936 1:0.010217 2:0.032116 3:0.063167 
-68.079986721117066 1:0 2:0.227115 3:0.171923 
-128 1:0 2:0.151624 3:0.075855 
-128 1:0 2:0.969202 3:0.540275 
-128 1:0 2:0.172831 3:0.11975 
-128 1:0 2:0.071802 3:0.333333 
-124.08244262350289 1:0.029748 2:0.033332 3:0.046344 
-128 1:0 2:0.096575 3:0.045757 
-128 1:0 2:0.096589 3:0.045757 
-0.013795367502638487 1:0 2:1 3:1 
-128 1:0.018035 2:0.004345 3:0.015609 
-0.013523149013871793 1:0 2:1 3:1 
-0.014160270977146684 1:0 2:1 3:1 
-105.12211768961839 1:0 2:0.407814 3:0.333333 
-128 1:0 2:0.559491 3:0.401408 
-0.084434627817717281 1:0 2:1 3:1 
-128 1:0 2:0.280669 3:0.284595 
-0.014747631946206484 1:0 2:1 3:1 
-128 1:0.029726 2:0.033313 3:0.064149 
-128 1:0 2:0.068596 3:0.333333 
-128 1:0 2:0.165982 3:0.099418 
-112.23553797457953 1:0.029748 2:0.033332 3:0.046344 
-17.234673701104018 1:0 2:0.33339 3:0.33316 
-0.030799865984949971 1:0 2:1 3:1 
-0.020073867352060161 1:0 2:1 3:1 
-0.011380705789480843 1:1 2:1 3:1 
-128 1:0.03607 2:0.004346 3:0.015609 
-128 1:0 2:0.407815 3:0.333333 
-0.0044822906762846055 1:1 2:1 3:1 
-128 1:0 2:0.407856 3:0.333333 
-128 1:0.022858 2:0.012166 3:0.013937 
-128 1:0 2:0.33312 3:0.190406 
-128 1:0.362606 2:0.111702 3:0.175862 
-128 1:0.028583 2:0.058824 3:0.021672 
-128 1:0 2:0.721744 3:0.384615 
-20.164146606646288 1:0.168963 2:0.101222 3:0.125 
-52.788694108659215 1:0 2:0.142743 3:0.487687 
-128 1:0.002695 2:0.073475 3:0.015609 
-128 1:0 2:0.071361 3:0.333333 
-128 1:0 2:0.096591 3:0.045757 
-4.468737232926248 1:0 2:0.33339 3:0.33316 
-0.0086388680512121726 1:1 2:1 3:1 
-128 1:0 2:0.407811 3:0.333333 
-128 1:0 2:0.275072 3:0.242134 
-15.17766016330501 1:0.951673 2:0.200007 3:0.202106 
-100.16452613259757 1:0.029748 2:0.033332 3:0.046344 
-128 1:0.362606 2:0.111515 3:0.175862 
-0.018596545926971245 1:0 2:1 3:1 
-128 1:0 2:0.053507 3:0.333333 
-128 1:0 2:0.333123 3:0.190406 
-128 1:0 2:0.01308 3:0.046762 
-128 1:0 2:0.408362 3:0.333333 
-122.0713811505325 1:0.225806 2:0.166666 3:0.179487 
-128 1:0 2:0.141771 3:0.066698 
-128 1:0 2:0.333125 3:0.190406 
-128 1:0 2:0.17154 3:0.070461 
-128 1:0 2:0.067306 3:0.333333 
-128 1:0 2:0.106393 3:0.528 
-9.2075047991388068 1:0 2:0.333179 3:0.190406 
-128 1:0.018945 2:0.012263 3:0.01377 
-0.0064075867332533103 1:0 2:1 3:1 
-128 1:0.022785 2:0.012543 3:0.013937 
-128 1:0 2:0.172687 3:0.11975 
-128 1:0 2:0 3:0.026175 
-128 1:0.03607 2:0.004346 3:0.015609 
-128 1:0 2:0.546953 3:0.401408 
-128 1:0 2:0.333127 3:0.308704 
-128 1:0.018035 2:0.004345 3:0.015609 
-0.015140165798992498 1:0 2:1 3:1 
-0.048912755976407998 1:1 2:1 3:1 
-0.038400156113024289 1:0 2:1 3:1 
-128 1:0.029748 2:0.033332 3:0.046344 
-128 1:0 2:0.066922 3:0.333333 
-29.868361488640673 1:0.333333 2:0.499431 3:0.5 
-128 1:0.018035 2:0.004398 3:0.015609 
-128 1:0.03607 2:0.073772 3:0.015609 
-0.067641825959999069 1:0 2:1 3:1 
-56.720879209479698 1:0.03607 2:0.004398 3:0.015609 
-128 1:0 2:0.030402 3:0.459725 
-19.735353147744096 1:0 2:0.131504 3:0.333333 
-0.0086048714714102408 1:1 2:1 3:1 
-128 1:0.018035 2:0.004398 3:0.015609 
-127.29207061839024 1:0 2:0.33339 3:0.33316 
-0.020772512391469041 1:0 2:1 3:1 
-128 1:0 2:0.066137 3:0.333333 
-128 1:0 2:0.33339 3:0.33316 
-128 1:0.019399 2:0.011774 3:0.013937 
-128 1:0 2:0.969459 3:0.540275 
-5.129527753136518 1:0.029748 2:0.033332 3:0.046344 
-0.048428201697525416 1:0 2:1 3:1 
-128 1:0.022858 2:0.012283 3:0.01377 
-0.013010038111063958 1:0 2:1 3:1 
-128 1:0 2:0.33339 3:0.33316 
-128 1:0 2:0.334959 3:0.333333 
-128 1:0 2:0.126435 3:0.333333 
-128 1:0 2:0.10229 3:0.048 
-128 1:0.03607 2:0.004344 3:0.015609 
-128 1:0.307577 2:0.200066 3:0.172973 
-0.7535313905911476 1:0 2:0.784884 3:0.333333 
-128 1:0 2:0.250005 3:0.1875 
-128 1:0 2:0.069383 3:0.300401 
-126.06052561345513 1:0 2:0.33339 3:0.33316 
-128 1:0 2:0.33339 3:0.33316 
-128 1:0 2:0.249674 3:0.163422 
-128 1:0 2:0.333435 3:0.31068 
-0.010479517756873225 1:0 2:1 3:1 
-128 1:0 2:0.333771 3:0.33316 
-128 1:0 2:0.33339 3:0.33316 
-128 1:0.441286 2:0.170566 3:0.277597 
-128 1:0 2:0.105655 3:0.048 
-128 1:0 2:0 3:0.083333 
-128 1:0.019499 2:0.012904 3:0.013937 
-128 1:0 2:0.223934 3:0.150833 
-128 1:0 2:0.33339 3:0.33316 
-128 1:0 2:0.030798 3:0.459725 
-128 1:0.018035 2:0.004345 3:0.015609 
-128 1:0.191386 2:0.027579 3:0.144828 
-128 1:0 2:0.227457 3:0.171923 
-0.056260394223396668 1:0 2:1 3:1 
-128 1:0.012987 2:0.090913 3:0.042967 
-128 1:0 2:0.275294 3:0.242134 
-128 1:0.018945 2:0.012134 3:0.013937 
-128 1:0 2:0.33339 3:0.33316 
-128 1:0 2:0.40781 3:0.333333 
-128 1:0.03607 2:0.073659 3:0.015609 
-128 1:0 2:0.099237 3:0.048 
-128 1:0 2:0.012719 3:0.046762 
-128 1:0 2:0.013237 3:0.046762 
-128 1:0.012082 2:0.199998 3:0.104235 
-128 1:0 2:0.497939 3:0.396552 
-128 1:0 2:0.057253 3:0.371429 
-19.671615707504731 1:0 2:0.407814 3:0.333333 
-128 1:0 2:0.33339 3:0.33316 
-128 1:0 2:0.390875 3:0.143251 
-90.275905978393027 1:0 2:0.408353 3:0.333333 
-128 1:0 2:0.107502 3:0.048 
-128 1:0 2:0 3:0.02551 
-128 1:0.019499 2:0.012794 3:0.013937 
-128 1:0 2:0.006452 3:0.039687 
-128 1:0 2:0.73251 3:0.5 
-128 1:0 2:0.02833 3:0.131863 
-128 1:0 2:0.052701 3:0.312715 
-80.556564600081188 1:0.533333 2:0.140301 3:0.473684 
-128 1:0.362606 2:0.111289 3:0.175862 
-69.226776105685119 1:0 2:0.735505 3:0.556561 
-2.0610440704019606 1:0.996644 2:1 3:0.416667 
-128 1:0.032581 2:0.076922 3:0.025024 
-0.11298401587079267 1:1 2:1 3:1 
-128 1:0.362606 2:0.111302 3:0.175862 
-0.15610565795525577 1:0 2:1 3:1 
-128 1:0.018945 2:0.012324 3:0.013937 
-128 1:0 2:0.070981 3:0.333333 
-128 1:0.018035 2:0.004345 3:0.015609 
-128 1:0.032581 2:0.076921 3:0.025024 
-128 1:0.362606 2:0.111705 3:0.175862 
-128 1:0 2:0.165665 3:0.035088 
-128 1:0 2:0.102664 3:0.049335 
-0.0019966068376060814 1:1 2:1 3:1 
-128 1:0 2:0.202097 3:0.093333 
-128 1:0 2:0.5344 3:0.401408 
-128 1:0 2:0.329169 3:0.18024 
-86.477383255344037 1:0 2:0.969598 3:0.540275 
-0.012033119237607406 1:0 2:1 3:1 
-128 1:0.055556 2:0.099998 3:0.033263 
-128 1:0 2:0.172687 3:0.11975 
-128 1:0 2:0.198454 3:0.093333 
-128 1:0 2:0.304933 3:0.12069 
-128 1:0 2:0.407878 3:0.333333 
-0.12332325906888006 1:1 2:1 3:1 
-12.70372672408144 1:0 2:0.02935 3:0.289474 
-0.15875383541661209 1:0 2:1 3:1 
-128 1:0 2:0.172831 3:0.11975 
-0.0093304868357330407 1:1 2:1 3:1 
-0.018052198321058009 1:0 2:1 3:1 
-128 1:0 2:0.300545 3:0.277778 
-128 1:0 2:0.33339 3:0.33316 
-128 1:0 2:0.249403 3:0.147932 
-128 1:0 2:0.141296 3:0.084797 
-128 1:0 2:0.096591 3:0.045757 
-128 1:0 2:0.33339 3:0.33316 
-128 1:0 2:0.055738 3:0.312715 
-127.68260288851813 1:0 2:0.33339 3:0.33316 
-128 1:0 2:0.164308 3:0.073648 
-128 1:0 2:0.069251 3:0.333333 
-128 1:0.021064 2:0.013521 3:0.013937 
-0.059517738129229399 1:1 2:1 3:1 
-128 1:0.362606 2:0.111651 3:0.175862 
-128 1:0 2:0.275302 3:0.242134 
-128 1:0 2:0.33339 3:0.33316 
-13.045447658971671 1:0 2:0.255004 3:0.265952 
-128 1:0 2:0.773071 3:0.521739 
-128 1:0 2:0.106918 3:0.333333 
-113.1808434752469 1:0.024231 2:0.013059 3:0.01377 
-0.019735876839605409 1:0 2:1 3:1 
-128 1:0.03607 2:0.073709 3:0.015609 
-6.1807460140791868 1:0 2:1 3:1 
-128 1:0 2:1 3:1 
-128 1:0 2:0.271027 3:0.182957 
-127.99709557154459 1:0 2:1 3:1 
-128 1:0 2:1 3:1 
-128 1:0 2:1 3:1 
-128 1:0 2:1 3:1 
-119.57727001654526 1:0.029748 2:0.033332 3:0.046344 
-128 1:0 2:1 3:1 
-128 1:0 2:1 3:1 
-128 1:0 2:1 3:1 
-128 1:0 2:1 3:1 
-128 1:0 2:1 3:1 
-128 1:0 2:0.333771 3:0.33316 
-128 1:0 2:0.030541 3:0.459725 
-128 1:0 2:1 3:1 
-128 1:0 2:0.497819 3:0.396552 
-128 1:0 2:1 3:1 
-88.125688002369245 1:0 2:0.33339 3:0.33316 
-128 1:0 2:1 3:1 
-69.153216612875326 1:0.007074 2:0.030048 3:0.625 
-58.083094650011311 1:0 2:0.013415 3:0.156841 
-128 1:0 2:1 3:1 
-80.358955196977462 1:0 2:0.500086 3:0.4 
-128 1:0 2:0.249459 3:0.16479 
-128 1:0.024231 2:0.012998 3:0.013937 
-128 1:0 2:1 3:1 
-128 1:1 2:1 3:1 
-128 1:0.320617 2:0.084106 3:0.322 
-128 1:0 2:1 3:1 
-128 1:0 2:0.012858 3:0.046762 
-128 1:0 2:1 3:1 
-128 1:0 2:1 3:1 
-127.76091468127861 1:1 2:1 3:1 
-127.99711624805227 1:0 2:1 3:1 
-128 1:1 2:1 3:1 
-128 1:0 2:1 3:1 
-128 1:0 2:1 3:1 
-128 1:0 2:1 3:1 
-127.9423829276695 1:1 2:1 3:1 
-126.48258036198594 1:0 2:0.33339 3:0.33316 
-128 1:0 2:1 3:1 
-128 1:0 2:1 3:1 
-128 1:0 2:1 3:1 
-128 1:0 2:1 3:1 
-128 1:0 2:1 3:1 
-128 1:0 2:1 3:1 
-128 1:0 2:1 3:1 
-128 1:0 2:0.0372 3:0.142096 
-128 1:0 2:0.12472 3:0.05894 
-127.94476943651611 1:1 2:1 3:1 
-128 1:0 2:1 3:1 
-128 1:1 2:1 3:1 
-128 1:0 2:1 3:1 
-128 1:0 2:0.33339 3:0.33316 
-128 1:0 2:1 3:1 
-91.340402545493518 1:0.011781 2:0.003281 3:0.005516 
-128 1:1 2:1 3:1 
-128 1:0 2:1 3:1 
-128 1:0 2:1 3:1 
-128 1:0 2:1 3:1 
-128 1:0 2:1 3:1 
-128 1:0.022785 2:0.012573 3:0.013937 
-128 1:0 2:1 3:1 
-128 1:1 2:1 3:1 
-128 1:0 2:0.33339 3:0.33316 
-128 1:0 2:1 3:1 
-128 1:0 2:1 3:1 
-128 1:1 2:1 3:1 
-128 1:1 2:1 3:1 
-128 1:0 2:1 3:1 
-128 1:0 2:0.102654 3:0.049335 
-128 1:0 2:1 3:1 
-128 1:0 2:1 3:1 
-128 1:1 2:1 3:1 
-128 1:0 2:1 3:1 
-128 1:0 2:1 3:1 
-127.68533123231799 1:1 2:1 3:1 
-128 1:0 2:1 3:1 
-128 1:0 2:1 3:1 
-128 1:0 2:1 3:1 
-128 1:0 2:1 3:1 
-128 1:0 2:1 3:1 
-128 1:0 2:1 3:1 
-128 1:1 2:1 3:1 
-128 1:0 2:1 3:1 
-128 1:0 2:1 3:1 
-127.99056478171694 1:1 2:1 3:1 
-128 1:0 2:1 3:1 
-128 1:0 2:1 3:1 
-128 1:0 2:1 3:1 
-127.89930346497293 1:1 2:1 3:1 
-128 1:0.019399 2:0.012152 3:0.013937 
-128 1:0 2:1 3:1 
-128 1:1 2:1 3:1 
-128 1:0 2:1 3:1 
-128 1:0 2:1 3:1 
-128 1:0 2:1 3:1 
-128 1:0 2:1 3:1 
-128 1:0 2:1 3:1 
-128 1:0 2:1 3:1 
-128 1:0 2:1 3:1 
-127.95808998273746 1:0 2:1 3:1 
-127.84289575124855 1:1 2:1 3:1 
-128 1:0 2:0.280802 3:0.12069 
-84.405895792883726 1:0 2:0.629306 3:0.332626 
-128 1:0 2:1 3:1 
-128 1:0 2:1 3:1 
-128 1:0 2:1 3:1 
-128 1:0 2:1 3:1 
-127.96901769827049 1:1 2:1 3:1 
-128 1:0 2:1 3:1 
-128 1:0 2:0.006462 3:0.039687 
-127.9763674000464 1:0 2:1 3:1 
-127.92389893979929 1:0 2:1 3:1 
-128 1:1 2:1 3:1 
-128 1:0 2:1 3:1 
-128 1:1 2:1 3:1 
-128 1:0 2:0.33339 3:0.33316 
-128 1:0.258065 2:0.166668 3:0.179487 
-127.99550643497247 1:0 2:1 3:1 
-128 1:0 2:1 3:1 
-128 1:0 2:0.248601 3:0.143777 
-128 1:1 2:1 3:1 
-128 1:1 2:1 3:1 
-27.618323144793301 1:0.666667 2:0.500569 3:0.5 
-128 1:0 2:1 3:1 
-128 1:1 2:1 3:1 
-128 1:0 2:1 3:1 
-128 1:0 2:1 3:1 
-127.99701084814652 1:0 2:1 3:1 
-128 1:0.016461 2:0.016423 3:0.047569 
-128 1:0 2:0.124644 3:0.045596 
-127.99949765277998 1:1 2:1 3:1 
-128 1:0 2:0.498618 3:0.353846 
-128 1:0.362606 2:0.111246 3:0.175862 
-128 1:0 2:1 3:1 
-128 1:0 2:1 3:1 
-128 1:0 2:1 3:1 
-128 1:0 2:1 3:1 
-128 1:1 2:1 3:1 
-128 1:0 2:0.33339 3:0.33316 
-128 1:0 2:1 3:1 
-128 1:0 2:0.054487 3:0.333333 
-128 1:0 2:1 3:1 
-128 1:0 2:1 3:1 
-128 1:0 2:1 3:1 
-128 1:1 2:1 3:1 
-128 1:1 2:1 3:1 
-128 1:0.029726 2:0.033322 3:0.064149 
-128 1:0 2:0.066428 3:0.333333 
-128 1:0 2:1 3:1 
-128 1:0 2:1 3:1 
-128 1:0 2:1 3:1 
-128 1:1 2:1 3:1 
-128 1:0 2:1 3:1 
-128 1:1 2:1 3:1 
-126.59378002179174 1:1 2:1 3:1 
-128 1:0 2:0.071176 3:0.333333 
