svm_type c_svc
kernel_type rbf
gamma 8
nr_class 2
total_sv 171
rho 0.8757791754452251
label 1 -1
nr_sv 47 124
SV
256 1:0 2:1 3:1 
256 1:0 2:0.197553 3:0.253394 
256 1:0 2:0.084101 3:0.181125 
256 1:0.333333 2:0.064449 3:0.188889 
256 1:1 2:1 3:1 
256 1:0 2:1 3:1 
256 1:0.017837 2:0.027651 3:0.02551 
256 1:0 2:0.341835 3:0.232877 
256 1:0 2:1 3:1 
256 1:1 2:1 3:1 
256 1:0.018161 2:0.029827 3:0.026175 
256 1:0.026756 2:0.022564 3:0.02551 
70.520315250748894 1:0.332778 2:0.333333 3:0.503509 
114.48604250515872 1:0.498418 2:0.079237 3:0.435897 
256 1:0.001666 2:0.333333 3:0.208772 
2.0890389273791539 1:1 2:0.879796 3:0.3 
256 1:0 2:1 3:1 
256 1:0 2:0.677075 3:0.433333 
42.47184217050625 1:0.943344 2:0.228675 3:0.076389 
256 1:0 2:0.094932 3:0.05612 
256 1:0.333333 2:0.129681 3:0.188889 
5.4315700645506002 1:0.498418 2:0.857352 3:0.435897 
256 1:0.027242 2:0.025927 3:0.026175 
256 1:0.333333 2:0.128795 3:0.188889 
256 1:0 2:0.500587 3:0.371429 
256 1:1 2:1 3:1 
256 1:0 2:0.344636 3:0.355556 
256 1:0.017837 2:0.166118 3:0.02551 
12.206000096085621 1:0.002519 2:0.924017 3:0.742574 
18.085750158082767 1:0.907801 2:0.500047 3:0.5 
256 1:0 2:0.288936 3:0.065864 
256 1:0 2:0.332882 3:0.326667 
80.614837647508963 1:0.665556 2:0.333333 3:0.287719 
256 1:0 2:0.179913 3:0.065041 
256 1:0 2:0.056732 3:0.444444 
256 1:0 2:0.334581 3:0.346667 
256 1:0 2:1 3:1 
256 1:0 2:0.004339 3:0.015609 
256 1:0 2:0.92779 3:0.540275 
256 1:0 2:1 3:1 
256 1:0 2:1 3:1 
256 1:0 2:1 3:1 
256 1:0 2:0.140391 3:0.132321 
41.250735638821823 1:1 2:0.332537 3:0.326667 
256 1:0 2:1 3:1 
256 1:0.000235 2:0.046174 3:0.351687 
256 1:0.032035 2:0 3:0.049075 
-45.449843723856453 1:0 2:0.771113 3:0.521739 
-6.5099775754744167 1:1 2:0.500805 3:0.642857 
-128 1:0 2:0.541613 3:0.392289 
-27.763785772640574 1:0 2:0.10125 3:0.460526 
-50.565329671118697 1:0 2:0.190248 3:0.097813 
-9.7655943891172363 1:0.011876 2:0.333611 3:0.432186 
-128 1:0.260163 2:0.090685 3:0.144309 
-50.151454722527909 1:0 2:0.090353 3:0.215686 
-2.6951568360259452 1:0.092199 2:0.499953 3:0.5 
-57.624810992188372 1:0 2:0.074082 3:0.250689 
-128 1:0.013526 2:0.073648 3:0.015609 
-16.820063906517841 1:0 2:0.012795 3:0.046762 
-1.4641779997789359 1:0 2:0.35512 3:0.342631 
-45.588444548365374 1:0.825768 2:0.320919 3:0.125 
-54.577706331319881 1:0.907801 2:0.333549 3:0.35914 
-70.047210119528259 1:0 2:0.009865 3:0.104641 
-17.116272777740441 1:0.020001 2:0.027321 3:0.035144 
-84.168254328463021 1:0.362606 2:0.111324 3:0.175862 
-38.213511570882844 1:0.421053 2:0.333324 3:0.388889 
-128 1:0 2:0.969202 3:0.540275 
-52.982594107047952 1:0 2:0.071802 3:0.333333 
-36.555025150825131 1:0.018035 2:0.004345 3:0.015609 
-57.62322872123837 1:0 2:0.559491 3:0.401408 
-128 1:0 2:0.354831 3:0.342631 
-4.8694605633107093 1:0 2:0.060798 3:0.200392 
-86.322384757345972 1:0 2:0.721744 3:0.384615 
-2.4758812628360545 1:0 2:0.33339 3:0.33316 
-10.843108257153892 1:0.25 2:0.333289 3:0.357143 
-0.0045041595906048061 1:0 2:1 3:1 
-106.85183656040411 1:0.002695 2:0.073475 3:0.015609 
-56.37543544063751 1:0 2:0.354823 3:0.342631 
-19.341660050416699 1:0.951673 2:0.200007 3:0.202106 
-0.023756210870387765 1:0 2:0.33339 3:0.33316 
-128 1:0 2:0.17154 3:0.070461 
-118.1068891122657 1:0.020001 2:0.027321 3:0.035144 
-128 1:0 2:0.333127 3:0.308704 
-0.00097946029873489243 1:1 2:1 3:1 
-126.49157578820905 1:0.018035 2:0.004345 3:0.015609 
-0.0056664192094908064 1:0 2:1 3:1 
-18.856265949860159 1:0.333333 2:0.499431 3:0.5 
-118.33867025750318 1:0.03607 2:0.073772 3:0.015609 
-57.756989790209417 1:0 2:0.969459 3:0.540275 
-4.9711213492767792 1:0.907801 2:0.089596 3:0.070546 
-3.0982181474839097 1:0 2:0.35512 3:0.342631 
-128 1:0 2:0.334959 3:0.333333 
-128 1:0 2:0.333435 3:0.31068 
-0.0053518582561228791 1:1 2:1 3:1 
-65.073358357159719 1:0.441286 2:0.170566 3:0.277597 
-128 1:0 2:0 3:0.083333 
-115.65076698130504 1:0 2:0.33339 3:0.33316 
-128 1:0 2:0.030798 3:0.459725 
-128 1:0.018035 2:0.004345 3:0.015609 
-78.063640817269558 1:0.191386 2:0.027579 3:0.144828 
-61.677139808427611 1:0 2:0.40781 3:0.333333 
-128 1:0.017837 2:0.022522 3:0.02551 
-128 1:0 2:0.057253 3:0.371429 
-17.61477610694206 1:0 2:0.33339 3:0.33316 
-89.191740830283976 1:0 2:0.390875 3:0.143251 
-84.185894302727263 1:0.533333 2:0.140301 3:0.473684 
-128 1:0.362606 2:0.111289 3:0.175862 
-3.2549234962984941 1:0.996644 2:1 3:0.416667 
-128 1:0.362606 2:0.111302 3:0.175862 
-128 1:0.018035 2:0.004345 3:0.015609 
-128 1:0 2:0.165665 3:0.035088 
-0.021804619009585312 1:1 2:1 3:1 
-128 1:0 2:0.202097 3:0.093333 
-15.852524957892559 1:0 2:0.329169 3:0.18024 
-128 1:0 2:0.198454 3:0.093333 
-50.733061910940435 1:0.08457 2:0.249883 3:0.112309 
-128 1:0 2:0.304933 3:0.12069 
-128 1:0.018161 2:0.025199 3:0.026175 
-128 1:0.017837 2:0.022302 3:0.02551 
-106.75797048942528 1:0 2:0.300545 3:0.277778 
-10.966575626513711 1:0 2:0.249403 3:0.147932 
-58.879585154366289 1:0 2:0.124708 3:0.260532 
-0.12392400457925531 1:0 2:1 3:1 
-109.09823066170622 1:0 2:0.124708 3:0.260532 
-128 1:0 2:0.164308 3:0.073648 
-128 1:0 2:0.773071 3:0.521739 
-64.830688864832695 1:0 2:0.106918 3:0.333333 
-0.0084747225381667408 1:0 2:1 3:1 
-49.966596042643772 1:0 2:0.030541 3:0.459725 
-128 1:0.320617 2:0.084106 3:0.322 
-125.1152772439448 1:0.018161 2:0.025485 3:0.026175 
-15.116873592801443 1:0 2:0.199939 3:0.551279 
-2.7363806165761373 1:0 2:0.0372 3:0.142096 
-0.38070066089431087 1:0 2:0.33339 3:0.33316 
-0.37014955066582994 1:0 2:1 3:1 
-128 1:0 2:0.099288 3:0.235294 
-128 1:0 2:0.280802 3:0.12069 
-4.627033606114006 1:0 2:1 3:1 
-77.954351706984156 1:0 2:0.33339 3:0.33316 
-9.2014426548009673 1:0.258065 2:0.166668 3:0.179487 
-127.98334949389471 1:0 2:1 3:1 
-128 1:0 2:1 3:1 
-128 1:0 2:0.248601 3:0.143777 
-13.662028097149118 1:0.666667 2:0.500569 3:0.5 
-128 1:0 2:1 3:1 
-128 1:0 2:1 3:1 
-128 1:0 2:1 3:1 
-128 1:0 2:1 3:1 
-128 1:0.016461 2:0.016423 3:0.047569 
-128 1:0 2:0.124644 3:0.045596 
-128 1:0 2:0.498618 3:0.353846 
-128 1:0.362606 2:0.111246 3:0.175862 
-128 1:0 2:1 3:1 
-128 1:0 2:1 3:1 
-128 1:0 2:1 3:1 
-128 1:0 2:1 3:1 
-127.83583077976304 1:1 2:1 3:1 
-128 1:0 2:0.33339 3:0.33316 
-128 1:0 2:1 3:1 
-128 1:0 2:1 3:1 
-128 1:0 2:1 3:1 
-128 1:0 2:1 3:1 
-128 1:1 2:1 3:1 
-128 1:1 2:1 3:1 
-128 1:0 2:1 3:1 
-128 1:0 2:1 3:1 
-128 1:0 2:1 3:1 
-128 1:1 2:1 3:1 
-127.79883806059604 1:0 2:1 3:1 
-128 1:1 2:1 3:1 
-128 1:1 2:1 3:1 
