svm_type c_svc
kernel_type rbf
gamma 8
nr_class 2
total_sv 277
rho 2.3174899268555578
label 1 -1
nr_sv 47 230
SV
640 1:0 2:1 3:1 
640 1:0 2:0.197553 3:0.253394 
640 1:0 2:0.084101 3:0.181125 
426.87964007239606 1:0.333333 2:0.064449 3:0.188889 
640 1:1 2:1 3:1 
640 1:0 2:1 3:1 
640 1:0.017837 2:0.027651 3:0.02551 
640 1:0 2:0.341835 3:0.232877 
640 1:0 2:1 3:1 
640 1:1 2:1 3:1 
640 1:0.018161 2:0.029827 3:0.026175 
640 1:0.026756 2:0.022564 3:0.02551 
91.591369853349917 1:0.332778 2:0.333333 3:0.503509 
87.107725329984689 1:0.498418 2:0.079237 3:0.435897 
640 1:0.001666 2:0.333333 3:0.208772 
2.0405412842833104 1:1 2:0.879796 3:0.3 
640 1:0 2:1 3:1 
640 1:0 2:0.677075 3:0.433333 
37.494427271891709 1:0.943344 2:0.228675 3:0.076389 
640 1:0 2:0.094932 3:0.05612 
640 1:0.333333 2:0.129681 3:0.188889 
6.9005217542700974 1:0.498418 2:0.857352 3:0.435897 
640 1:0.027242 2:0.025927 3:0.026175 
640 1:0.333333 2:0.128795 3:0.188889 
640 1:0 2:0.500587 3:0.371429 
640 1:1 2:1 3:1 
640 1:0 2:0.344636 3:0.355556 
640 1:0.017837 2:0.166118 3:0.02551 
21.081425481035385 1:0.002519 2:0.924017 3:0.742574 
22.785356410299574 1:0.907801 2:0.500047 3:0.5 
462.87788168270322 1:0 2:0.288936 3:0.065864 
640 1:0 2:0.332882 3:0.326667 
93.278465432496418 1:0.665556 2:0.333333 3:0.287719 
640 1:0 2:0.179913 3:0.065041 
640 1:0 2:0.056732 3:0.444444 
640 1:0 2:0.334581 3:0.346667 
640 1:0 2:1 3:1 
640 1:0 2:0.004339 3:0.015609 
618.96889874613112 1:0 2:0.92779 3:0.540275 
640 1:0 2:1 3:1 
640 1:0 2:1 3:1 
640 1:0 2:1 3:1 
640 1:0 2:0.140391 3:0.132321 
48.648221893621425 1:1 2:0.332537 3:0.326667 
640 1:0 2:1 3:1 
640 1:0.000235 2:0.046174 3:0.351687 
640 1:0.032035 2:0 3:0.049075 
-128 1:0.019399 2:0.012066 3:0.01377 
-128 1:0 2:0.771113 3:0.521739 
-6.1147606645336783 1:1 2:0.500805 3:0.642857 
-128 1:0 2:0.541613 3:0.392289 
-43.555958479336326 1:0 2:0.10125 3:0.460526 
-128 1:0 2:0.333774 3:0.33316 
-128 1:0 2:0.124658 3:0.058723 
-62.889921056607292 1:0.03815 2:0.288196 3:0.134167 
-128 1:0 2:0.190248 3:0.097813 
-128 1:0.260163 2:0.090685 3:0.144309 
-128 1:0 2:0.165584 3:0.087719 
-128 1:0 2:0.12472 3:0.05894 
-128 1:0.029726 2:0.033321 3:0.064149 
-111.83753793295118 1:0 2:0.640916 3:0.332626 
-128 1:0 2:0.124658 3:0.058723 
-128 1:0 2:0.074082 3:0.250689 
-128 1:0.013526 2:0.073648 3:0.015609 
-72.503102769938053 1:0.437978 2:0.200032 3:0.325622 
-128 1:0.269088 2:0.169941 3:0.277597 
-128 1:0.012846 2:0.199998 3:0.104235 
-42.199685642460736 1:0.825768 2:0.320919 3:0.125 
-69.648228758958126 1:0.907801 2:0.333549 3:0.35914 
-76.552554946858749 1:0.258065 2:0.166668 3:0.179487 
-128 1:0.029726 2:0.033341 3:0.064149 
-128 1:0 2:0.124717 3:0.059054 
-128 1:0 2:0.009865 3:0.104641 
-128 1:0 2:0.333201 3:0.190406 
-128 1:0 2:0.333347 3:0.33316 
-128 1:0 2:0.108876 3:0.333333 
-128 1:0.029726 2:0.033313 3:0.064149 
-128 1:0.362606 2:0.111324 3:0.175862 
-128 1:0 2:0.124717 3:0.059054 
-128 1:0 2:0.96954 3:0.540275 
-128 1:0.362606 2:0.111328 3:0.175862 
-41.576848559641682 1:0.421053 2:0.333324 3:0.388889 
-128 1:0 2:0.151624 3:0.075855 
-128 1:0 2:0.969202 3:0.540275 
-128 1:0 2:0.071802 3:0.333333 
-128 1:0.018035 2:0.004345 3:0.015609 
-128 1:0 2:0.559491 3:0.401408 
-128 1:0 2:0.333887 3:0.333333 
-128 1:0.029726 2:0.033313 3:0.064149 
-0.006682059815404204 1:1 2:1 3:1 
-128 1:0.03607 2:0.004346 3:0.015609 
-126.36195158046998 1:0 2:0.407815 3:0.333333 
-10.889048719458096 1:0 2:0.33312 3:0.190406 
-128 1:0.362606 2:0.111702 3:0.175862 
-128 1:0 2:0.721744 3:0.384615 
-50.728941375982927 1:0.168963 2:0.101222 3:0.125 
-128 1:0.002695 2:0.073475 3:0.015609 
-0.048795585278245325 1:0 2:1 3:1 
-128 1:0 2:0.071361 3:0.333333 
-0.0013191098908194728 1:1 2:1 3:1 
-17.69400181259806 1:0.951673 2:0.200007 3:0.202106 
-128 1:0.362606 2:0.111515 3:0.175862 
-128 1:0 2:0.333123 3:0.190406 
-128 1:0 2:0.141771 3:0.066698 
-128 1:0 2:0.333125 3:0.190406 
-0.040807287327589724 1:0 2:1 3:1 
-128 1:0 2:0.17154 3:0.070461 
-54.635295400489618 1:0 2:0.106393 3:0.528 
-128 1:0.018945 2:0.012263 3:0.01377 
-128 1:0 2:0 3:0.026175 
-128 1:0.03607 2:0.004346 3:0.015609 
-128 1:0 2:0.333347 3:0.33316 
-128 1:0 2:0.013417 3:0.156841 
-128 1:0 2:0.546953 3:0.401408 
-128 1:0 2:0.333127 3:0.308704 
-128 1:0.018035 2:0.004345 3:0.015609 
-0.050358601593572146 1:0 2:1 3:1 
-24.804035675831479 1:0.333333 2:0.499431 3:0.5 
-128 1:0.018035 2:0.004398 3:0.015609 
-128 1:0.03607 2:0.073772 3:0.015609 
-128 1:0 2:0.030402 3:0.459725 
-0.0029502492395226537 1:1 2:1 3:1 
-128 1:0.018035 2:0.004398 3:0.015609 
-0.015589869285624613 1:0 2:1 3:1 
-128 1:0 2:0.33339 3:0.33316 
-128 1:0.019399 2:0.011774 3:0.013937 
-128 1:0 2:0.969459 3:0.540275 
-0.049529143011940335 1:0 2:1 3:1 
-50.731953841636802 1:0 2:0.35512 3:0.342631 
-128 1:0 2:0.334959 3:0.333333 
-53.101700815512395 1:0.03607 2:0.004344 3:0.015609 
-0.01385418490068324 1:0 2:1 3:1 
-11.522343369317298 1:0 2:0.784884 3:0.333333 
-128 1:0 2:0.069383 3:0.300401 
-128 1:0 2:0.33339 3:0.33316 
-128 1:0 2:0.33339 3:0.33316 
-128 1:0 2:0.249674 3:0.163422 
-128 1:0 2:0.333435 3:0.31068 
-128 1:0 2:0.333771 3:0.33316 
-112.99274943481088 1:0 2:0.105655 3:0.048 
-128 1:0 2:0 3:0.083333 
-12.556722453709298 1:0 2:0.33339 3:0.33316 
-128 1:0 2:0.030798 3:0.459725 
-128 1:0.018035 2:0.004345 3:0.015609 
-128 1:0 2:0.333408 3:0.333333 
-128 1:0.191386 2:0.027579 3:0.144828 
-128 1:0.018945 2:0.012134 3:0.013937 
-128 1:0 2:0.40781 3:0.333333 
-128 1:0.03607 2:0.073659 3:0.015609 
-128 1:0 2:0.333347 3:0.33316 
-0.10384858351145287 1:0 2:1 3:1 
-128 1:0.012082 2:0.199998 3:0.104235 
-35.959670265275172 1:0 2:0.497939 3:0.396552 
-128 1:0 2:0.057253 3:0.371429 
-128 1:0 2:0.390875 3:0.143251 
-128 1:0 2:0.107502 3:0.048 
-2.2943565561675334 1:0 2:0.056852 3:0.014951 
-46.419309719255949 1:0 2:0 3:0.02551 
-128 1:0 2:0.333347 3:0.33316 
-128 1:0 2:0.006452 3:0.039687 
-128 1:0 2:0.73251 3:0.5 
-55.973189469140912 1:0.533333 2:0.140301 3:0.473684 
-128 1:0.362606 2:0.111289 3:0.175862 
-43.913755430603786 1:0 2:0.735505 3:0.556561 
-2.3051640020005038 1:0.996644 2:1 3:0.416667 
-128 1:0.362606 2:0.111302 3:0.175862 
-128 1:0.018945 2:0.012324 3:0.013937 
-0.0014508549534051347 1:1 2:1 3:1 
-128 1:0 2:0.070981 3:0.333333 
-128 1:0.018035 2:0.004345 3:0.015609 
-2.2963645559253911 1:0.032581 2:0.076921 3:0.025024 
-123.93458706654748 1:0.362606 2:0.111705 3:0.175862 
-128 1:0 2:0.165665 3:0.035088 
-128 1:0 2:0.333347 3:0.33316 
-128 1:0 2:0.202097 3:0.093333 
-128 1:0 2:0.5344 3:0.401408 
-128 1:0 2:0.329169 3:0.18024 
-87.006824447010587 1:0 2:0.969598 3:0.540275 
-0.18180344431422618 1:0 2:1 3:1 
-128 1:0 2:0.198454 3:0.093333 
-0.010865818051732232 1:1 2:1 3:1 
-128 1:0 2:0.304933 3:0.12069 
-128 1:0 2:0.249403 3:0.147932 
-128 1:0 2:0.33339 3:0.33316 
-128 1:0 2:0.124708 3:0.260532 
-128 1:0 2:0.057629 3:0.009843 
-128 1:0 2:0.124708 3:0.260532 
-128 1:0 2:0.164308 3:0.073648 
-128 1:0.362606 2:0.111651 3:0.175862 
-128 1:0 2:0.773071 3:0.521739 
-128 1:0 2:0.106918 3:0.333333 
-128 1:0.03607 2:0.073709 3:0.015609 
-105.01695099741484 1:0.017012 2:0.012446 3:0.013937 
-128 1:0 2:0.333771 3:0.33316 
-128 1:0 2:0.030541 3:0.459725 
-1.798266487273152 1:0 2:0.33339 3:0.33316 
-2.1239522605299515 1:0.007074 2:0.030048 3:0.625 
-79.631998901592354 1:0 2:0.013415 3:0.156841 
-85.105277541417323 1:0 2:0.249459 3:0.16479 
-128 1:0.320617 2:0.084106 3:0.322 
-128 1:0 2:0.12472 3:0.05894 
-0.13747702388021224 1:0 2:1 3:1 
-4.9405369310212146 1:0 2:1 3:1 
-128 1:0 2:1 3:1 
-128 1:0 2:1 3:1 
-128 1:0 2:1 3:1 
-128 1:0 2:1 3:1 
-128 1:0 2:1 3:1 
-128 1:0 2:1 3:1 
-128 1:0 2:1 3:1 
-127.97028250340914 1:0 2:1 3:1 
-128 1:0 2:1 3:1 
-128 1:0 2:1 3:1 
-128 1:0.019399 2:0.012152 3:0.013937 
-128 1:0 2:1 3:1 
-127.85738905130367 1:1 2:1 3:1 
-128 1:0 2:1 3:1 
-128 1:0 2:1 3:1 
-128 1:0 2:1 3:1 
-128 1:0 2:1 3:1 
-128 1:0 2:1 3:1 
-128 1:0 2:1 3:1 
-128 1:0 2:1 3:1 
-4.5160554030235254 1:0 2:0.099288 3:0.235294 
-127.99184137935812 1:0 2:1 3:1 
-127.98045450255084 1:1 2:1 3:1 
-128 1:0 2:0.280802 3:0.12069 
-127.84488411381125 1:0 2:1 3:1 
-128 1:0 2:1 3:1 
-128 1:0 2:1 3:1 
-128 1:0 2:1 3:1 
-127.97202709605374 1:1 2:1 3:1 
-128 1:0 2:1 3:1 
-25.695815359307922 1:0 2:0.006462 3:0.039687 
-128 1:0 2:1 3:1 
-128 1:0 2:1 3:1 
-128 1:1 2:1 3:1 
-128 1:0 2:1 3:1 
-128 1:1 2:1 3:1 
-82.465572659048121 1:0 2:0.33339 3:0.33316 
-50.780055191877302 1:0.258065 2:0.166668 3:0.179487 
-128 1:0 2:1 3:1 
-128 1:0 2:1 3:1 
-128 1:0 2:0.248601 3:0.143777 
-128 1:1 2:1 3:1 
-128 1:1 2:1 3:1 
-18.687258613772407 1:0.666667 2:0.500569 3:0.5 
-128 1:0 2:1 3:1 
-128 1:1 2:1 3:1 
-128 1:0 2:1 3:1 
-128 1:0 2:1 3:1 
-128 1:0 2:1 3:1 
-128 1:0.016461 2:0.016423 3:0.047569 
-128 1:0 2:0.124644 3:0.045596 
-128 1:1 2:1 3:1 
-128 1:0 2:0.498618 3:0.353846 
-128 1:0.362606 2:0.111246 3:0.175862 
-128 1:0 2:1 3:1 
-128 1:0 2:1 3:1 
-128 1:0 2:1 3:1 
-128 1:0 2:1 3:1 
-128 1:1 2:1 3:1 
-128 1:0 2:1 3:1 
-128 1:0 2:1 3:1 
-128 1:0 2:1 3:1 
-128 1:0 2:1 3:1 
-128 1:1 2:1 3:1 
-128 1:1 2:1 3:1 
-6.8915213775735875 1:0.029726 2:0.033322 3:0.064149 
-128 1:0 2:1 3:1 
-128 1:0 2:1 3:1 
-128 1:0 2:1 3:1 
-128 1:1 2:1 3:1 
-128 1:0 2:1 3:1 
-128 1:1 2:1 3:1 
-126.71843822403896 1:1 2:1 3:1 
-128 1:0 2:0.071176 3:0.333333 
